<?xml version="1.0"?>
<opencv_storage>
<cascade>
  <stageType>BOOST</stageType>
  <featureType>LBP</featureType>
  <height>24</height>
  <width>24</width>
  <stageParams>
    <boostType>GAB</boostType>
    <minHitRate>9.9900001287460327e-01</minHitRate>
    <maxFalseAlarm>5.0000000000000000e-01</maxFalseAlarm>
    <weightTrimRate>9.4999999999999996e-01</weightTrimRate>
    <maxDepth>1</maxDepth>
    <maxWeakCount>100</maxWeakCount></stageParams>
  <featureParams>
    <maxCatCount>256</maxCatCount>
    <featSize>1</featSize></featureParams>
  <stageNum>12</stageNum>
  <stages>
    <!-- stage 0 -->
    <_>
      <maxWeakCount>1</maxWeakCount>
      <stageThreshold>9.5503419637680054e-01</stageThreshold>
      <weakClassifiers>
        <_>
          <internalNodes>
            0 -1 5 -538577462 -645271273 -1860120304 -619637877
            -519785586 -92209152 -352270149 -1052421</internalNodes>
          <leafValues>
            -1. 9.5503419637680054e-01</leafValues></_></weakClassifiers></_>
    <!-- stage 1 -->
    <_>
      <maxWeakCount>3</maxWeakCount>
      <stageThreshold>-9.6958744525909424e-01</stageThreshold>
      <weakClassifiers>
        <_>
          <internalNodes>
            0 -1 7 -4194545 -1056657 -2138975987 -774770657 -192753664
            -32766 -201326593 -1</internalNodes>
          <leafValues>
            -9.3092620372772217e-01 9.4626867771148682e-01</leafValues></_>
        <_>
          <internalNodes>
            0 -1 17 -800731000 -1052770104 -2130657278 -782958445
            -1073692536 -1073741696 -1073677653 -70549061</internalNodes>
          <leafValues>
            -9.2872816324234009e-01 9.4402277469635010e-01</leafValues></_>
        <_>
          <internalNodes>
            0 -1 14 -804585472 -1870593920 -2147483648 -804847615
            -1878851584 -2147483648 -805174782 -1299513342</internalNodes>
          <leafValues>
            -1. 8.9006692171096802e-01</leafValues></_></weakClassifiers></_>
    <!-- stage 2 -->
    <_>
      <maxWeakCount>2</maxWeakCount>
      <stageThreshold>-1.0676267743110657e-01</stageThreshold>
      <weakClassifiers>
        <_>
          <internalNodes>
            0 -1 2 -1048577 -232320169 -2129182441 -756065969 -392179257
            -695795222 -340787873 2143286015</internalNodes>
          <leafValues>
            -9.8650926351547241e-01 8.9895141124725342e-01</leafValues></_>
        <_>
          <internalNodes>
            0 -1 19 -101714953 -738207585 -778852237 -335683189
            -900350333 -1163148661 -740309597 2144337919</internalNodes>
          <leafValues>
            -9.9247527122497559e-01 8.7974661588668823e-01</leafValues></_></weakClassifiers></_>
    <!-- stage 3 -->
    <_>
      <maxWeakCount>2</maxWeakCount>
      <stageThreshold>-7.5968161225318909e-02</stageThreshold>
      <weakClassifiers>
        <_>
          <internalNodes>
            0 -1 23 -10249 -144452617 -1043362913 -556805589 -1140866605
            -100942657 -939031013 2147483647</internalNodes>
          <leafValues>
            -9.7658860683441162e-01 9.0229886770248413e-01</leafValues></_>
        <_>
          <internalNodes>
            0 -1 22 -2097153 -537963009 -297063379 -625781813 -752097345
            -70072427 -1737295971 2147483551</internalNodes>
          <leafValues>
            -9.7788131237030029e-01 9.0062046051025391e-01</leafValues></_></weakClassifiers></_>
    <!-- stage 4 -->
    <_>
      <maxWeakCount>2</maxWeakCount>
      <stageThreshold>-6.8115256726741791e-02</stageThreshold>
      <weakClassifiers>
        <_>
          <internalNodes>
            0 -1 20 -8390657 -584063005 -475803177 -86249081 -605693029
            -1902141009 -236848245 2147483595</internalNodes>
          <leafValues>
            -9.6393442153930664e-01 9.1666668653488159e-01</leafValues></_>
        <_>
          <internalNodes>
            0 -1 3 -270797313 -704678993 -74110593 -288649 -1623068997
            -36468951 -111414549 2146435055</internalNodes>
          <leafValues>
            -9.8478192090988159e-01 8.9619559049606323e-01</leafValues></_></weakClassifiers></_>
    <!-- stage 5 -->
    <_>
      <maxWeakCount>2</maxWeakCount>
      <stageThreshold>-1.4071778953075409e-01</stageThreshold>
      <weakClassifiers>
        <_>
          <internalNodes>
            0 -1 24 -203948065 -6876169 -789317353 -139084017 -3941953
            -108293719 -103237409 2146434559</internalNodes>
          <leafValues>
            -9.9657535552978516e-01 8.8846880197525024e-01</leafValues></_>
        <_>
          <internalNodes>
            0 -1 6 -1075839009 -46677801 -800468609 -638584849
            -1061038855 -934882112 -269754197 2147479391</internalNodes>
          <leafValues>
            -9.9247348308563232e-01 8.5585755109786987e-01</leafValues></_></weakClassifiers></_>
    <!-- stage 6 -->
    <_>
      <maxWeakCount>3</maxWeakCount>
      <stageThreshold>-1.0759570598602295e+00</stageThreshold>
      <weakClassifiers>
        <_>
          <internalNodes>
            0 -1 13 -940048521 -2906673 -1010102945 -269768485
            -1169153739 -1119057273 -76169063 -85213271</internalNodes>
          <leafValues>
            -9.3656092882156372e-01 8.8111215829849243e-01</leafValues></_>
        <_>
          <internalNodes>
            0 -1 9 -9962745 -404925539 -1895170769 -42993573 -486486009
            -122433406 -18699465 -6554897</internalNodes>
          <leafValues>
            -9.3605577945709229e-01 8.4870785474777222e-01</leafValues></_>
        <_>
          <internalNodes>
            0 -1 1 -171597440 -716072993 -117069566 -797443 -776211461
            -115896069 -130373409 -1074799617</internalNodes>
          <leafValues>
            -9.7472971677780151e-01 7.9665964841842651e-01</leafValues></_></weakClassifiers></_>
    <!-- stage 7 -->
    <_>
      <maxWeakCount>2</maxWeakCount>
      <stageThreshold>-1.5461048483848572e-01</stageThreshold>
      <weakClassifiers>
        <_>
          <internalNodes>
            0 -1 16 -70254642 -746340212 -1019131062 -547388601
            -259335862 -32771190 -351300982 -72365061</internalNodes>
          <leafValues>
            -9.5104897022247314e-01 8.4299063682556152e-01</leafValues></_>
        <_>
          <internalNodes>
            0 -1 0 -86051361 -221854011 -2120810227 -228662777
            -209202553 -2147417053 -338435441 2147478511</internalNodes>
          <leafValues>
            -9.8099529743194580e-01 7.9643845558166504e-01</leafValues></_></weakClassifiers></_>
    <!-- stage 8 -->
    <_>
      <maxWeakCount>2</maxWeakCount>
      <stageThreshold>-1.1988223344087601e-01</stageThreshold>
      <weakClassifiers>
        <_>
          <internalNodes>
            0 -1 21 -69207075 -406345841 -771255141 -204478505
            -2121299131 -352066292 -1104490103 2146171743</internalNodes>
          <leafValues>
            -9.8540145158767700e-01 8.2084095478057861e-01</leafValues></_>
        <_>
          <internalNodes>
            0 -1 11 -742007817 -842825383 -1629244955 -109280211
            -537985433 -343229783 -863506875 -18089223</internalNodes>
          <leafValues>
            -8.7477624416351318e-01 8.6551922559738159e-01</leafValues></_></weakClassifiers></_>
    <!-- stage 9 -->
    <_>
      <maxWeakCount>2</maxWeakCount>
      <stageThreshold>-1.3614073395729065e-01</stageThreshold>
      <weakClassifiers>
        <_>
          <internalNodes>
            0 -1 10 -538249259 -611997009 -1709900395 -1446052736
            -1096948331 -1716868472 -1366511979 -7488371</internalNodes>
          <leafValues>
            -9.1915643215179443e-01 8.2106244564056396e-01</leafValues></_>
        <_>
          <internalNodes>
            0 -1 8 -552401405 -844115471 -1877925453 -263749307
            -82638021 -392131968 -112987741 -168037485</internalNodes>
          <leafValues>
            -9.3690097332000732e-01 7.8301566839218140e-01</leafValues></_></weakClassifiers></_>
    <!-- stage 10 -->
    <_>
      <maxWeakCount>2</maxWeakCount>
      <stageThreshold>-1.5727858245372772e-01</stageThreshold>
      <weakClassifiers>
        <_>
          <internalNodes>
            0 -1 12 -80765057 -645148557 43626663 -1999658973
            -1939627725 -2005169632 -1969176347 -68163395</internalNodes>
          <leafValues>
            -8.9152544736862183e-01 8.4030419588088989e-01</leafValues></_>
        <_>
          <internalNodes>
            0 -1 18 -78678441 -750022585 -183674405 -41812029 -644683321
            -1467449205 -1531991369 2146431743</internalNodes>
          <leafValues>
            -9.9758279323577881e-01 7.6242595911026001e-01</leafValues></_></weakClassifiers></_>
    <!-- stage 11 -->
    <_>
      <maxWeakCount>2</maxWeakCount>
      <stageThreshold>-2.0238856971263885e-01</stageThreshold>
      <weakClassifiers>
        <_>
          <internalNodes>
            0 -1 4 -359413537 -87430949 -1908194945 -30681697 -150300481
            -33447666 -619463714 2144075303</internalNodes>
          <leafValues>
            -9.8816567659378052e-01 7.5682818889617920e-01</leafValues></_>
        <_>
          <internalNodes>
            0 -1 15 -751369710 -122462109 402721023 -64124520 -268369920
            -1987035116 -91972658 -87045989</internalNodes>
          <leafValues>
            -8.8236063718795776e-01 7.8577709197998047e-01</leafValues></_></weakClassifiers></_></stages>
  <features>
    <_>
      <rect>
        0 0 2 6</rect></_>
    <_>
      <rect>
        0 0 8 5</rect></_>
    <_>
      <rect>
        0 8 1 3</rect></_>
    <_>
      <rect>
        0 9 1 1</rect></_>
    <_>
      <rect>
        1 3 2 3</rect></_>
    <_>
      <rect>
        1 7 6 4</rect></_>
    <_>
      <rect>
        1 10 1 2</rect></_>
    <_>
      <rect>
        5 4 3 3</rect></_>
    <_>
      <rect>
        5 6 2 3</rect></_>
    <_>
      <rect>
        6 6 2 2</rect></_>
    <_>
      <rect>
        8 2 5 6</rect></_>
    <_>
      <rect>
        8 7 2 3</rect></_>
    <_>
      <rect>
        9 6 2 4</rect></_>
    <_>
      <rect>
        9 8 2 3</rect></_>
    <_>
      <rect>
        9 10 1 1</rect></_>
    <_>
      <rect>
        11 10 1 1</rect></_>
    <_>
      <rect>
        12 5 3 4</rect></_>
    <_>
      <rect>
        12 10 3 1</rect></_>
    <_>
      <rect>
        18 0 2 2</rect></_>
    <_>
      <rect>
        18 7 2 2</rect></_>
    <_>
      <rect>
        20 10 1 2</rect></_>
    <_>
      <rect>
        21 0 1 5</rect></_>
    <_>
      <rect>
        21 6 1 3</rect></_>
    <_>
      <rect>
        21 9 1 3</rect></_>
    <_>
      <rect>
        21 21 1 1</rect></_></features></cascade>
</opencv_storage>